1193514 200
<user> 0.31553 0.53765 0.10177 0.032553 0.003798 0.015364 -0.20344 0.33294 -0.20886 0.10061 0.30976 0.50015 0.32018 0.13537 0.0087039 0.1911 0.24668 -0.060752 -0.43623 0.019302 0.59972 0.13444 0.012801 -0.54052 0.27387 -1.182 -0.27677 0.11279 0.46596 -0.090685 0.24253 0.15654 -0.23618 0.57694 0.17563 -0.01969 0.018295 0.37569 -0.41984 0.22613 -0.20438 -0.076249 0.40356 0.61582 -0.10064 0.23318 0.22808 0.34576 -0.14627 -0.1988 0.033232 -0.84885 -0.25684 0.26369 0.29562 0.1847 -0.20668 -0.013297 0.12233 -0.47751 -0.17202 -0.14577 0.047446 -0.15824 0.054215 -0.19426 -0.081484 0.099009 0.10159 0.043571 0.50245 0.13362 0.065985 0.032969 -0.2017 -0.56905 -0.13203 0.073347 -0.063728 -0.2796 -0.38481 -0.020193 0.22298 -0.059115 0.045198 -0.13995 -0.13299 0.47309 -0.021874 0.38758 -0.074926 -0.0028093 -0.29829 -0.074987 -0.58542 -0.18065 -0.041805 0.41938 0.41004 -0.5911 0.10459 0.10724 0.69768 -0.15901 -0.059596 0.29368 -0.19609 0.39124 -0.29333 -0.0050833 -0.37854 0.33858 0.24782 0.29144 -0.22833 0.19421 -0.055409 0.10322 0.38963 -0.27813 0.21963 0.40014 0.071036 -0.079786 0.19534 -0.69432 -0.093075 -0.13729 -0.54014 0.57165 0.24443 0.036741 0.033606 -0.14398 0.25873 0.089008 0.11109 0.38387 0.19013 -0.23252 -0.26271 -0.26936 -0.32409 0.55236 -0.46158 -0.11086 -0.38417 0.59605 -0.14479 -0.28762 -0.29638 0.21889 -4.1257 0.69382 -0.26307 -0.013691 0.032916 0.017627 -0.02909 0.42807 -0.20815 0.50598 -0.080836 0.45083 -0.11466 -0.27782 -0.038373 0.15672 -0.010899 0.082053 -0.19766 0.20574 -0.075329 0.083754 -0.72767 0.10403 0.42831 0.41023 -0.097314 0.15128 0.39287 -0.17807 -0.029196 0.57502 -0.17823 -0.76488 -0.47383 -0.21984 0.2119 -0.015729 -0.062927 0.26674 -0.23617 0.18109 -0.26583 0.090904 -0.81205 -0.45664 -0.4654 0.52066
. 0.35132 0.00056084 -0.21488 -0.04707 -0.17777 0.66162 -0.0074805 -0.15963 -0.22129 0.65523 0.346 -0.22968 -0.078954 0.27465 0.36018 0.20373 -0.048134 0.091749 -0.093562 -0.088653 -0.61514 -0.1124 -0.21046 0.13129 0.11224 -0.92995 -0.18006 0.0096874 0.93647 -0.19493 -0.13873 0.18719 -0.022502 0.39516 0.33007 0.36089 0.0078608 -0.024064 -0.3289 -0.28101 -0.20223 0.30049 -0.22843 0.0639 0.59025 -0.17992 0.72733 0.028216 -0.43656 -0.06433 0.087363 0.0054825 0.34902 0.081738 0.35089 0.053459 0.05537 0.10797 0.19663 0.63077 -0.074041 0.13848 0.24849 -0.10183 0.42992 -0.41886 0.010814 -0.48654 0.19154 -0.18615 0.17851 0.4053 0.14635 0.22446 0.12614 -0.45649 -0.16633 0.15915 -0.12543 -0.055649 -0.30481 0.12712 -0.015809 -0.062656 0.87436 0.4834 -0.16578 0.39106 0.11319 -0.1763 0.01411 -0.40942 0.32281 -0.22064 0.022058 0.076171 0.13255 -0.067011 0.45695 0.04404 0.076988 -0.1565 0.35628 0.18131 -0.040064 0.56617 -0.37482 -0.36297 -0.18098 0.026808 -0.16885 0.24951 -0.14548 -0.23878 -0.074018 -0.032295 0.16866 0.33322 0.023116 -0.4722 0.27615 0.25764 -0.14382 -0.3359 0.029436 -0.15695 -0.084597 -0.10684 -0.24784 0.021849 -0.14485 -0.12874 -0.17975 -0.20351 -0.085811 0.31607 0.28477 -0.011954 0.1486 -0.15402 0.36125 -0.082339 0.27478 0.056358 -0.21401 0.74459 0.048518 0.06175 0.17656 -0.075019 -0.61491 0.063787 -3.9376 0.54504 0.15964 -0.41187 0.51993 0.1342 -0.031554 -0.26429 0.040603 0.2661 0.082515 -0.090602 0.0057244 0.40602 -0.30109 0.37078 0.11716 -0.26164 -0.38366 -0.13616 -0.30152 -0.17193 0.14108 0.31278 0.16425 0.17671 -0.29942 0.43029 0.057682 -0.1411 -0.031367 0.058953 -0.3055 -0.88512 -0.47983 -0.056183 -0.10459 0.039792 -0.4437 0.14186 -0.42475 0.023551 -0.096965 0.079513 -1.4683 0.036684 -0.037206 0.85384
: 0.80767 0.49786 0.082696 -0.0079298 0.082471 -0.5936 -0.18753 0.48645 0.10719 -0.31299 0.17609 0.046026 0.036029 0.47656 -0.1215 -0.098428 -0.18983 0.038915 -0.20902 -0.316 0.5007 -0.22646 0.12353 -0.27012 0.70739 -0.98348 -0.54111 0.32431 -0.19345 -0.18299 -0.45738 -0.44089 -0.47504 -0.090636 0.085478 0.028124 -0.28045 0.21273 0.0060152 -0.37948 -0.68825 -0.59779 -0.046953 0.65887 0.44564 -0.25169 -0.030223 0.25673 -0.293 -0.047083 -0.43578 -0.45254 -0.15416 0.35722 0.48247 0.42448 -0.32445 -0.27119 0.31039 -0.40884 -0.4227 0.080102 0.28311 0.013829 0.94008 -0.58542 0.34853 -0.15336 0.1654 0.093904 0.46697 0.11781 0.091151 -0.41349 -0.19446 -0.58665 0.094378 0.14077 0.35482 -0.17125 -0.050602 0.21653 -0.11619 0.45904 -0.30238 0.072354 -0.46345 1.3963 -0.21264 -0.25539 -0.31002 -0.27831 -0.40129 0.10612 -0.42636 0.035816 0.20376 0.22088 0.47981 -0.0767 0.3361 0.34746 0.088655 0.65177 0.45665 0.091346 -0.53175 0.14724 -0.4377 0.27911 -0.67202 0.38052 -0.011494 -0.11314 -0.29098 0.43887 -0.004587 0.079091 -0.0045291 -0.63007 0.1432 0.1942 -0.076888 -0.21021 0.25376 -0.47742 0.14886 0.2257 -0.40912 0.18141 -0.19515 -0.3797 -0.3215 0.0075749 0.68672 0.06226 0.0010575 0.30921 0.10123 -0.28578 0.20308 -0.13243 -0.8974 0.70887 -0.04753 0.54342 -0.40847 0.14928 0.23341 0.024772 0.30833 -0.14153 -3.6293 0.40686 0.22129 -0.2993 -0.01763 0.045388 -0.03538 -0.14189 -0.098312 0.083338 -0.20842 0.59749 0.039259 -0.046968 -0.038719 0.04147 0.40501 -0.13983 -0.40245 0.30089 -0.03762 0.12831 -0.15879 0.17023 0.75995 0.3549 0.0046914 -0.053001 0.13518 0.40568 -0.22714 -0.063414 -0.36388 -0.4503 -0.47098 -0.0973 0.77199 -0.01085 -0.15552 0.11186 0.068971 -0.55048 -0.5001 0.1886 -0.85631 -0.073302 -0.47785 0.67059
rt 0.55687 0.63284 -0.15609 0.26397 0.28015 -0.36506 -0.12128 0.45217 -0.16123 0.015791 0.49511 0.054643 0.66865 0.44101 -0.48446 0.12594 0.40596 -0.086889 -0.2352 -0.0073657 0.58835 -0.12101 -0.11671 -0.47415 0.47753 -1.3069 -0.42765 -0.0055401 0.2247 0.061141 0.010707 0.20652 -0.48375 0.40042 0.35776 0.17049 -0.23819 0.28888 -0.069899 0.094793 -0.33917 -0.11422 0.016834 0.53581 0.25739 -0.2775 0.056731 0.34448 -0.10715 -0.21423 0.020693 -0.59172 -0.39452 -0.1925 0.20454 0.40205 -0.096825 -0.037272 0.32491 -0.26628 0.0072484 0.19783 0.17485 -0.071738 0.084738 -0.43062 0.016838 0.14359 -0.13822 0.27964 0.31179 0.33653 0.12314 -0.15906 -0.62741 -0.83838 -0.069363 0.28698 -0.11668 -0.43706 -0.063269 -0.19582 0.42072 0.19197 0.057278 0.32468 -0.59688 0.82594 -0.7103 0.47354 0.11517 -0.11188 -0.53444 0.015748 -0.57038 -0.1253 -0.45733 0.42662 0.41064 -0.27635 -0.2032 0.14295 0.46532 0.16804 0.022694 -0.24602 0.059308 0.73777 -0.29451 -0.33315 -0.29938 0.33871 0.37681 0.31939 -0.014027 0.32298 0.054817 0.13213 0.3252 -0.6153 -0.12941 0.28465 0.32881 0.25362 0.27244 -0.82169 0.41908 -0.62524 -1.2176 0.27902 -0.33003 -0.20213 -0.28881 -0.071473 0.23549 0.38409 0.13101 0.17312 0.018403 -0.29669 0.17959 -0.33733 -0.82358 0.1042 -0.51619 0.035018 -0.19027 0.50867 0.023113 -0.53112 0.10043 0.27881 -4.2515 0.44271 0.29931 -0.23305 0.011018 0.07118 0.14536 0.2012 -0.046338 0.36196 -0.33985 0.65517 -0.045043 -0.39308 0.22788 0.30343 -0.058125 0.18367 -0.22463 -0.46903 -0.20435 -0.13256 -0.73335 -0.42302 0.14038 0.59022 -0.28843 -0.09194 0.18957 0.039595 -0.11694 0.67706 -0.23313 -0.079736 -0.46375 -0.054137 0.0557 -0.12069 -0.30669 -0.15438 -0.19857 0.064394 -0.14346 -0.10524 -0.57253 0.23857 -0.79235 0.23761
